[[-1.76691383e-01  1.36318684e-01  4.60729524e-02]
 [ 1.06420778e-01 -2.73983836e-01 -3.68465424e-01]
 [-2.20948204e-01 -4.41267677e-02 -3.97191823e-01]
 [-1.28699660e-01  5.65646552e-02  4.81033355e-01]
 [ 1.71198606e-01 -1.15578949e-01 -5.74282445e-02]
 [-2.32947990e-01 -2.84895867e-01  2.60781851e-02]
 [ 7.65491351e-02  1.56267256e-01  3.42776358e-01]
 [ 1.26956210e-01  8.31971839e-02 -1.86078995e-01]
 [-1.37093160e-02 -1.88298896e-01 -3.62162381e-01]
 [ 9.56998542e-02  2.96666235e-01 -1.53334677e-01]
 [-2.52039194e-01  3.34330611e-02 -2.64339030e-01]
 [-1.74479827e-01 -2.24737838e-01 -2.56009772e-02]
 [-8.27120245e-03  1.14517268e-02  5.13992086e-03]
 [ 1.17490672e-01  1.41033173e-01  1.71343222e-01]
 [-1.74238101e-01 -2.88884461e-01  6.06067218e-02]
 [ 2.01879531e-01 -1.11008249e-01 -1.61153600e-01]
 [ 1.05909556e-01  1.14849932e-01  2.39109918e-01]
 [ 3.26529890e-02  4.77390945e-01 -2.01175898e-01]
 [ 9.17679071e-02  3.92523929e-02 -1.76496401e-01]
 [-2.06827015e-01 -8.11150298e-02 -5.04147932e-02]
 [-2.45634839e-01  2.84730434e-01  3.31189901e-01]
 [ 1.74504966e-01  3.81112605e-01  6.39967695e-02]
 [-1.58633268e-03  5.50829023e-02  5.06242931e-01]
 [-2.49235332e-02  3.83176178e-01 -1.94065452e-01]
 [-1.44450769e-01  1.18298516e-01  2.45634858e-02]
 [-3.06991041e-02 -2.14911833e-01  8.50153714e-03]
 [-1.10582151e-02 -1.57570958e-01 -3.07885632e-02]
 [ 3.53277922e-02  5.87497763e-02 -9.57613885e-02]
 [ 5.37584834e-02  3.75138402e-01  2.05549747e-02]
 [ 1.02361536e-03  6.67739436e-02 -1.79983322e-02]
 [-2.18091160e-02 -1.83896348e-01 -5.54611571e-02]
 [ 4.70285602e-02 -7.24203661e-02 -4.51084413e-02]
 [ 9.50331762e-02 -1.03883795e-01  3.28992963e-01]
 [ 5.94239756e-02 -1.73725873e-01 -2.38449425e-02]
 [-1.65934324e-01  1.18165806e-01 -1.42670348e-01]
 [-2.09262580e-01 -2.57177323e-01  3.02616507e-01]
 [-1.18278198e-01 -4.58416373e-01 -4.04534861e-02]
 [-2.33251490e-02  3.74355882e-01  2.45414212e-01]
 [ 4.66390587e-02  2.46170014e-02  1.17606588e-01]
 [-1.61447793e-01  2.20945805e-01  7.55158886e-02]
 [ 3.93694565e-02  3.30263346e-01  3.19391973e-02]
 [-2.27924168e-01  1.31639212e-01 -1.05661973e-01]
 [ 1.06047794e-01  1.64171115e-01 -1.97731152e-01]
 [ 1.10371999e-01 -3.58108312e-01  2.05727741e-01]
 [ 2.88093593e-02  4.98116203e-03  2.56204486e-01]
 [-4.05442044e-02 -3.59594151e-02  6.34229463e-03]
 [ 2.24123034e-03 -3.28254700e-01 -8.22179168e-02]
 [-2.22003460e-01 -1.45166397e-01 -5.19715576e-03]
 [ 1.52576435e-03 -4.04628813e-01 -1.22497357e-01]
 [-1.89748555e-01  1.21314287e-01  2.06455439e-01]
 [ 3.50725614e-02 -2.13078916e-01 -2.40952447e-01]
 [ 4.52356972e-03 -1.08470514e-01 -2.58361906e-01]
 [-2.02670872e-01 -2.82381415e-01 -6.88850284e-02]
 [ 8.87075067e-02 -1.69253618e-01 -4.82576728e-01]
 [ 1.75076917e-01  1.94962278e-01 -1.41543373e-01]
 [-2.22496852e-01 -1.92482039e-01  1.38006821e-01]
 [-9.57590993e-03  8.47915933e-02 -2.39468306e-01]
 [ 5.91084808e-02 -1.10012166e-01 -4.08970453e-02]
 [-1.05335437e-01 -1.09249726e-01  2.86939502e-01]
 [-1.09340712e-01  3.86184901e-02  2.37345695e-01]
 [-2.74687946e-01 -3.77395600e-01 -1.16469532e-01]
 [ 5.31626940e-02  2.12623715e-01 -1.62142977e-01]
 [ 2.23022755e-02  6.92104846e-02 -6.36114255e-02]
 [-1.12917863e-01 -1.76465228e-01 -2.64239430e-01]
 [-1.68206930e-01 -6.30127862e-02 -3.44715230e-02]
 [-2.30945736e-01 -6.84799254e-02 -2.91227221e-01]
 [ 1.72868833e-01  5.06767519e-02 -2.22707599e-01]
 [-1.21978812e-01 -3.02954484e-02 -3.13868910e-01]
 [-1.61532983e-01 -8.52733701e-02 -2.14802697e-01]
 [-1.76492691e-01  1.78353876e-01 -3.02118868e-01]
 [ 3.82480659e-02 -1.26249105e-01  6.01838231e-02]
 [-1.43776294e-02  7.72350654e-02 -2.65133828e-01]
 [ 1.83862194e-01  1.42184019e-01 -3.27555597e-01]
 [ 1.35544002e-01 -2.05387414e-01 -2.19260886e-01]
 [-2.19405219e-01  1.69569761e-01 -2.17169806e-01]
 [ 2.24623196e-02  9.04809833e-02  2.08242640e-01]
 [-8.73880908e-02 -7.12411463e-01 -2.83762276e-01]
 [-2.35021099e-01  5.87655425e-01  3.24361622e-02]
 [-8.14489648e-02  1.16920508e-01  5.99583238e-02]
 [-2.67741710e-01 -1.42209500e-01 -1.17181870e-03]
 [ 7.87098259e-02  2.43603125e-01  1.17388234e-01]
 [-8.54792371e-02  3.45034748e-01  9.02879145e-03]
 [ 8.67719278e-02  1.78431496e-01 -3.55911255e-02]
 [-2.03791872e-01  1.60883680e-01  3.27082902e-01]
 [-2.36136597e-02 -1.46414682e-01  2.46530667e-01]
 [ 8.18480104e-02  4.65432480e-02 -3.00318956e-01]
 [ 5.99710979e-02  2.45682135e-01  5.38488664e-02]
 [-1.40423000e-01 -3.29121426e-02  1.28762051e-01]
 [-1.49059013e-01  1.20702758e-01  3.91987234e-01]
 [-3.94279957e-02 -2.89390478e-02  5.23735993e-02]
 [-6.46774992e-02  1.73794135e-01  4.72504467e-01]
 [ 5.63150756e-02 -5.27307391e-04 -1.63489133e-01]
 [ 6.94211572e-02 -1.59190550e-01  4.93259430e-01]
 [-1.59181476e-01 -9.36634392e-02  1.06178716e-01]
 [-9.05229747e-02  1.61201507e-01  1.65011331e-01]
 [-1.42593101e-01  1.86286762e-01  4.63574588e-01]
 [-2.62032840e-02  2.08055489e-02  5.08260913e-02]
 [-1.41065255e-01 -1.79087937e-01 -9.50821489e-02]
 [ 1.17703557e-01 -2.34266538e-02  2.36768767e-01]
 [-1.67930260e-01  1.06290296e-01  1.85536861e-01]]
[-0.05931046  0.05138156  0.01864952]
[[-0.42971924]
 [ 1.7172987 ]
 [ 1.7384646 ]]
[-1.1051487]
