[[-0.2849646   0.1424823   0.1424823 ]
 [ 0.1424823  -0.2849646  -0.42744687]
 [-0.2849646  -0.1424823  -0.42744687]
 [-0.1424823   0.1424823   0.5699292 ]
 [ 0.2849646  -0.1424823  -0.1424823 ]
 [-0.2849646  -0.2849646   0.1424823 ]
 [ 0.1424823   0.2849646   0.42744687]
 [ 0.1424823   0.1424823  -0.2849646 ]
 [-0.1424823  -0.2849646  -0.42744687]
 [ 0.1424823   0.42744687 -0.2849646 ]
 [-0.2849646   0.1424823  -0.2849646 ]
 [-0.2849646  -0.2849646  -0.1424823 ]
 [-0.1424823   0.1424823   0.1424823 ]
 [ 0.1424823   0.1424823   0.2849646 ]
 [-0.2849646  -0.42744687  0.1424823 ]
 [ 0.2849646  -0.1424823  -0.2849646 ]
 [ 0.1424823   0.1424823   0.2849646 ]
 [ 0.1424823   0.5699292  -0.2849646 ]
 [ 0.1424823   0.1424823  -0.2849646 ]
 [-0.2849646  -0.1424823  -0.1424823 ]
 [-0.2849646   0.2849646   0.42744687]
 [ 0.2849646   0.42744687  0.1424823 ]
 [-0.1424823   0.1424823   0.5699292 ]
 [-0.1424823   0.42744687 -0.2849646 ]
 [-0.2849646   0.1424823   0.1424823 ]
 [-0.1424823  -0.2849646   0.1424823 ]
 [-0.1424823  -0.2849646  -0.1424823 ]
 [ 0.1424823   0.1424823  -0.1424823 ]
 [ 0.1424823   0.42744687  0.1424823 ]
 [ 0.1424823   0.1424823  -0.1424823 ]
 [-0.1424823  -0.2849646  -0.1424823 ]
 [ 0.1424823  -0.1424823  -0.1424823 ]
 [ 0.1424823  -0.1424823   0.42744687]
 [ 0.1424823  -0.2849646  -0.1424823 ]
 [-0.2849646   0.1424823  -0.2849646 ]
 [-0.2849646  -0.2849646   0.42744687]
 [-0.1424823  -0.5699292  -0.1424823 ]
 [-0.1424823   0.42744687  0.2849646 ]
 [ 0.1424823   0.1424823   0.1424823 ]
 [-0.2849646   0.2849646   0.1424823 ]
 [ 0.1424823   0.42744687  0.1424823 ]
 [-0.2849646   0.1424823  -0.1424823 ]
 [ 0.1424823   0.2849646  -0.2849646 ]
 [ 0.1424823  -0.42744687  0.2849646 ]
 [ 0.1424823   0.1424823   0.2849646 ]
 [-0.1424823  -0.1424823   0.1424823 ]
 [ 0.1424823  -0.42744687 -0.1424823 ]
 [-0.2849646  -0.2849646  -0.1424823 ]
 [ 0.1424823  -0.42744687 -0.1424823 ]
 [-0.2849646   0.1424823   0.2849646 ]
 [ 0.1424823  -0.2849646  -0.2849646 ]
 [ 0.1424823  -0.1424823  -0.2849646 ]
 [-0.2849646  -0.2849646  -0.1424823 ]
 [ 0.1424823  -0.2849646  -0.5699292 ]
 [ 0.2849646   0.2849646  -0.1424823 ]
 [-0.2849646  -0.2849646   0.1424823 ]
 [-0.1424823   0.1424823  -0.2849646 ]
 [ 0.1424823  -0.1424823  -0.1424823 ]
 [-0.1424823  -0.1424823   0.42744687]
 [-0.1424823   0.1424823   0.2849646 ]
 [-0.2849646  -0.42744687 -0.1424823 ]
 [ 0.1424823   0.2849646  -0.2849646 ]
 [ 0.1424823   0.1424823  -0.1424823 ]
 [-0.1424823  -0.2849646  -0.2849646 ]
 [-0.2849646  -0.1424823  -0.1424823 ]
 [-0.2849646  -0.1424823  -0.42744687]
 [ 0.2849646   0.1424823  -0.2849646 ]
 [-0.1424823  -0.1424823  -0.42744687]
 [-0.2849646  -0.1424823  -0.2849646 ]
 [-0.2849646   0.2849646  -0.42744687]
 [ 0.1424823  -0.1424823   0.1424823 ]
 [-0.1424823   0.1424823  -0.2849646 ]
 [ 0.2849646   0.1424823  -0.42744687]
 [ 0.1424823  -0.2849646  -0.2849646 ]
 [-0.2849646   0.2849646  -0.2849646 ]
 [ 0.1424823   0.1424823   0.2849646 ]
 [-0.1424823  -0.71241146 -0.2849646 ]
 [-0.2849646   0.71241146  0.1424823 ]
 [-0.1424823   0.1424823   0.1424823 ]
 [-0.2849646  -0.1424823  -0.1424823 ]
 [ 0.1424823   0.2849646   0.1424823 ]
 [-0.1424823   0.42744687  0.1424823 ]
 [ 0.1424823   0.2849646  -0.1424823 ]
 [-0.2849646   0.2849646   0.42744687]
 [-0.1424823  -0.2849646   0.2849646 ]
 [ 0.1424823   0.1424823  -0.42744687]
 [ 0.1424823   0.2849646   0.1424823 ]
 [-0.1424823  -0.1424823   0.1424823 ]
 [-0.2849646   0.1424823   0.42744687]
 [-0.1424823  -0.1424823   0.1424823 ]
 [-0.1424823   0.2849646   0.5699292 ]
 [ 0.1424823  -0.1424823  -0.2849646 ]
 [ 0.1424823  -0.2849646   0.5699292 ]
 [-0.2849646  -0.1424823   0.1424823 ]
 [-0.1424823   0.2849646   0.2849646 ]
 [-0.2849646   0.2849646   0.5699292 ]
 [-0.1424823   0.1424823   0.1424823 ]
 [-0.1424823  -0.2849646  -0.1424823 ]
 [ 0.1424823  -0.1424823   0.2849646 ]
 [-0.2849646   0.1424823   0.2849646 ]]
[-0.1424823  0.1424823  0.1424823]
[[-0.6953858]
 [ 1.7384646]
 [ 1.7384646]]
[-1.3907716]
